digraph Tree {
node [shape=box] ;
0 [label="worst radius <= 16.8\ngini = 0.4744\nsamples = 398\nvalue = [154, 244]"] ;
1 [label="worst concave points <= 0.1358\ngini = 0.1607\nsamples = 261\nvalue = [23, 238]"] ;
0 -> 1 [labeldistance=2.5, labelangle=45, headlabel="True"] ;
2 [label="area error <= 48.975\ngini = 0.0345\nsamples = 228\nvalue = [4, 224]"] ;
1 -> 2 ;
3 [label="gini = 0.0178\nsamples = 223\nvalue = [2, 221]"] ;
2 -> 3 ;
4 [label="gini = 0.48\nsamples = 5\nvalue = [2, 3]"] ;
2 -> 4 ;
5 [label="mean texture <= 20.015\ngini = 0.4885\nsamples = 33\nvalue = [19, 14]"] ;
1 -> 5 ;
6 [label="gini = 0.3878\nsamples = 19\nvalue = [5, 14]"] ;
5 -> 6 ;
7 [label="gini = 0.0\nsamples = 14\nvalue = [14, 0]"] ;
5 -> 7 ;
8 [label="mean concavity <= 0.0721\ngini = 0.0838\nsamples = 137\nvalue = [131, 6]"] ;
0 -> 8 [labeldistance=2.5, labelangle=-45, headlabel="False"] ;
9 [label="mean texture <= 19.83\ngini = 0.4688\nsamples = 16\nvalue = [10, 6]"] ;
8 -> 9 ;
10 [label="gini = 0.2449\nsamples = 7\nvalue = [1, 6]"] ;
9 -> 10 ;
11 [label="gini = 0.0\nsamples = 9\nvalue = [9, 0]"] ;
9 -> 11 ;
12 [label="gini = 0.0\nsamples = 121\nvalue = [121, 0]"] ;
8 -> 12 ;
}